digraph Tree {
node [shape=box, style="filled, rounded", color="black", fontname=helvetica] ;
edge [fontname=helvetica] ;
0 [label="sepal length (cm) <= 5.45\ngini = 0.67\nsamples = 98\nvalue = [53, 49, 48]\nclass = setosa", fillcolor="#fefaf7"] ;
1 [label="petal length (cm) <= 2.5\ngini = 0.2\nsamples = 35\nvalue = [48, 5, 1]\nclass = setosa", fillcolor="#e89051"] ;
0 -> 1 [labeldistance=2.5, labelangle=45, headlabel="True"] ;
2 [label="gini = 0.0\nsamples = 31\nvalue = [48, 0, 0]\nclass = setosa", fillcolor="#e58139"] ;
1 -> 2 ;
3 [label="petal width (cm) <= 1.6\ngini = 0.28\nsamples = 4\nvalue = [0, 5, 1]\nclass = versicolor", fillcolor="#61ea9a"] ;
1 -> 3 ;
4 [label="gini = 0.0\nsamples = 3\nvalue = [0, 5, 0]\nclass = versicolor", fillcolor="#39e581"] ;
3 -> 4 ;
5 [label="gini = 0.0\nsamples = 1\nvalue = [0, 0, 1]\nclass = virginica", fillcolor="#8139e5"] ;
3 -> 5 ;
6 [label="petal length (cm) <= 4.75\ngini = 0.55\nsamples = 63\nvalue = [5, 44, 47]\nclass = virginica", fillcolor="#f8f4fe"] ;
0 -> 6 [labeldistance=2.5, labelangle=-45, headlabel="False"] ;
7 [label="petal width (cm) <= 0.7\ngini = 0.2\nsamples = 32\nvalue = [5, 39, 0]\nclass = versicolor", fillcolor="#52e891"] ;
6 -> 7 ;
8 [label="gini = 0.0\nsamples = 5\nvalue = [5, 0, 0]\nclass = setosa", fillcolor="#e58139"] ;
7 -> 8 ;
9 [label="gini = 0.0\nsamples = 27\nvalue = [0, 39, 0]\nclass = versicolor", fillcolor="#39e581"] ;
7 -> 9 ;
10 [label="petal width (cm) <= 1.7\ngini = 0.17\nsamples = 31\nvalue = [0, 5, 47]\nclass = virginica", fillcolor="#8e4ee8"] ;
6 -> 10 ;
11 [label="sepal width (cm) <= 2.35\ngini = 0.32\nsamples = 4\nvalue = [0, 4, 1]\nclass = versicolor", fillcolor="#6aeca0"] ;
10 -> 11 ;
12 [label="gini = 0.0\nsamples = 1\nvalue = [0, 0, 1]\nclass = virginica", fillcolor="#8139e5"] ;
11 -> 12 ;
13 [label="gini = 0.0\nsamples = 3\nvalue = [0, 4, 0]\nclass = versicolor", fillcolor="#39e581"] ;
11 -> 13 ;
14 [label="petal length (cm) <= 4.85\ngini = 0.04\nsamples = 27\nvalue = [0, 1, 46]\nclass = virginica", fillcolor="#843de6"] ;
10 -> 14 ;
15 [label="sepal width (cm) <= 3.1\ngini = 0.44\nsamples = 3\nvalue = [0, 1, 2]\nclass = virginica", fillcolor="#c09cf2"] ;
14 -> 15 ;
16 [label="gini = 0.0\nsamples = 2\nvalue = [0, 0, 2]\nclass = virginica", fillcolor="#8139e5"] ;
15 -> 16 ;
17 [label="gini = 0.0\nsamples = 1\nvalue = [0, 1, 0]\nclass = versicolor", fillcolor="#39e581"] ;
15 -> 17 ;
18 [label="gini = 0.0\nsamples = 24\nvalue = [0, 0, 44]\nclass = virginica", fillcolor="#8139e5"] ;
14 -> 18 ;
}